-0.250914767433858,0.263824049120691,0.181675258761193,-0.163560667739489,0.27983932984956,0.347056444997051,-0.308048695212555,0.258469603941053,0.111686132833578,-0.290376166179472,0.480920423844982,-0.094502277657595,-0.174821213200949,0.539098633624753,0.116309968926147,-0.264291738896828,0.151109571311897,-0.212993575431546,-0.141188172506988,0.584905334084689,-0.28969328823739,0.56987526912102,-0.311691836146914,0.252555243403256,0.382082291425801,0.259417881725578,0.064368998168256,0.14488305362183,0.137104397376201,-0.435903345702436,0.359249708276173,-0.447231910882553,-0.329433701692182,0.180597139433202,0.399757089393353,-0.0803180562872008,-0.0162180689350603,0.121717422424438,0.199020221053247,0.449514109186809,-0.252373387695919,0.249073610485909,0.394491590785538,-0.407156770592536,0.0771253653709073,-0.200856515340983,-0.00489078467379269,-0.328170234793818,-0.200320234435657,-0.264045850057405,0.490413590650755,0.453660697007115,-0.18785446767675,-0.451782032232482,-0.0182809281421046,0.275607582304916,-0.0146183109541334,-0.202333878623961,-0.0270021601301938,0.0829409545917912,-0.231375755818193,-0.14841482812404,0.15521643716532,-0.309737860805109,0.794198223679267,-0.241936707629658,-0.580517101214298,-0.203127324571106,0.649163940439754,-0.608657408032744,-0.0558193499329346,0.0436921312938489,0.167644665963408,0.228721636488959,-0.362605351573128,0.481700558906097,-0.0119651344958246,-0.490061455184902,-0.0253973272137175,0.10104162411259,0.055410952492111,-0.141057792760405,
